[
    {
        "layer": 1,
        "type": "hidden",
        "neurons": [
            {
                "neuron": 1,
                "weights": [
                    3.084489338658167,
                    -0.5486088449145848,
                    -5.224962949874996,
                    -1.1104649160549416
                ],
                "bias": 0.0
            },
            {
                "neuron": 2,
                "weights": [
                    -1.8842280338091635,
                    1.899576695361528,
                    0.8963699264969953,
                    -1.7008455856286673
                ],
                "bias": 0.0
            },
            {
                "neuron": 3,
                "weights": [
                    1.874963579516003,
                    -2.4715454745314442,
                    0.8124704195464285,
                    1.1215848115427334
                ],
                "bias": 0.0
            },
            {
                "neuron": 4,
                "weights": [
                    3.337143112986683,
                    -1.282312616168137,
                    -5.340328725005822,
                    -1.7811755583948987
                ],
                "bias": 0.0
            },
            {
                "neuron": 5,
                "weights": [
                    1.164540344274655,
                    -0.12929814730489889,
                    -2.9847349577853013,
                    -0.7051065684983908
                ],
                "bias": 0.0
            }
        ]
    },
    {
        "layer": 2,
        "type": "hidden",
        "neurons": [
            {
                "neuron": 1,
                "weights": [
                    -6.362550425924067,
                    -6.56631622831869,
                    4.372381048348537,
                    -6.783082726044358,
                    -6.221525969357942
                ],
                "bias": 0.0
            },
            {
                "neuron": 2,
                "weights": [
                    -3.8008478387160887,
                    -3.416478912630902,
                    1.9440950071239764,
                    -3.5040656393021794,
                    -2.9273749639141453
                ],
                "bias": 0.0
            },
            {
                "neuron": 3,
                "weights": [
                    4.906810805764288,
                    4.722323006158079,
                    -2.9280637437822437,
                    4.679830038695959,
                    3.866371655222733
                ],
                "bias": 0.0
            },
            {
                "neuron": 4,
                "weights": [
                    -2.3578932927397305,
                    -0.06512761320686981,
                    5.843189984597643,
                    -0.6284544564142704,
                    -0.9179091482408284
                ],
                "bias": 0.0
            },
            {
                "neuron": 5,
                "weights": [
                    1.47715148065336,
                    0.35153023269183253,
                    -6.9254745434481695,
                    1.8190784446715622,
                    1.0193669304464266
                ],
                "bias": 0.0
            }
        ]
    },
    {
        "layer": 3,
        "type": "output",
        "neurons": [
            {
                "neuron": 1,
                "weights": [
                    -3.126049303892042,
                    -2.8559337608038837,
                    0.36076658934725586,
                    -6.087539168309401,
                    5.283684159047275
                ],
                "bias": 0.0
            },
            {
                "neuron": 2,
                "weights": [
                    -8.971687287425762,
                    -3.45003610504752,
                    3.554470378331336,
                    5.7645143281249105,
                    -9.092207410583548
                ],
                "bias": 0.0
            },
            {
                "neuron": 3,
                "weights": [
                    6.378859217824901,
                    3.5239684289484456,
                    -8.19561204846686,
                    -2.0908278253126387,
                    -2.208598729171245
                ],
                "bias": 0.0
            }
        ]
    }
]