[
    {
        "layer": 1,
        "type": "hidden",
        "neurons": [
            {
                "neuron": 1,
                "weights": [
                    -2.1440086136695657,
                    6.267941683941801,
                    -7.5293034954675155,
                    -5.029795654766045
                ],
                "bias": 0.0
            },
            {
                "neuron": 2,
                "weights": [
                    -6.3581445698612615,
                    2.1700491389071854,
                    6.081745789356574,
                    -3.62964836979465
                ],
                "bias": 0.0
            },
            {
                "neuron": 3,
                "weights": [
                    -1.9629802220670352,
                    0.4134713782030533,
                    3.5984369306994286,
                    0.6084943563048362
                ],
                "bias": 0.0
            },
            {
                "neuron": 4,
                "weights": [
                    0.13476274563328813,
                    -0.6591985370560413,
                    1.05438470783329,
                    0.6555393523738652
                ],
                "bias": 0.0
            },
            {
                "neuron": 5,
                "weights": [
                    2.7418866266662087,
                    -0.7426566793274818,
                    -4.7057677827138695,
                    -0.7151335554748426
                ],
                "bias": 0.0
            }
        ]
    },
    {
        "layer": 2,
        "type": "output",
        "neurons": [
            {
                "neuron": 1,
                "weights": [
                    7.149172411540556,
                    -0.4657943715184252,
                    -4.018666168694215,
                    -3.3868930022978927,
                    -1.199983405357209
                ],
                "bias": 0.0
            },
            {
                "neuron": 2,
                "weights": [
                    -24.60660916289775,
                    11.74292525013258,
                    -4.867343693909879,
                    -0.7449917303439964,
                    9.843707967673126
                ],
                "bias": 0.0
            },
            {
                "neuron": 3,
                "weights": [
                    -8.36191437681581,
                    -14.536755343186377,
                    3.842048692756809,
                    3.3798973404657344,
                    -13.742066603388292
                ],
                "bias": 0.0
            }
        ]
    }
]