[
    {
        "layer": 1,
        "neurons": [
            {
                "neuron": 1,
                "weights": [
                    0.4911021278503363,
                    -1.08174460638741,
                    0.7742068093805957,
                    0.9177076634170519
                ],
                "bias": 0.0
            },
            {
                "neuron": 2,
                "weights": [
                    -1.5597077399812282,
                    -0.44955966528930896,
                    3.0792020866829914,
                    0.1672107342105064
                ],
                "bias": 0.0
            },
            {
                "neuron": 3,
                "weights": [
                    0.15054731316969264,
                    0.16605017879032416,
                    -1.3708861725692238,
                    -0.904434778671486
                ],
                "bias": 0.0
            },
            {
                "neuron": 4,
                "weights": [
                    1.0653947571469082,
                    -0.029171952312105006,
                    -2.350953879180585,
                    -0.5714990019143991
                ],
                "bias": 0.0
            },
            {
                "neuron": 5,
                "weights": [
                    -0.06158884187201297,
                    0.32219335478986644,
                    -1.1553643918179581,
                    -1.0123796938683167
                ],
                "bias": 0.0
            }
        ]
    },
    {
        "layer": 2,
        "neurons": [
            {
                "neuron": 1,
                "weights": [
                    -1.0628975473031015,
                    -2.5401479874462027,
                    5.1320918929851755,
                    5.449305412055901,
                    4.432301616606802
                ],
                "bias": 0.0
            },
            {
                "neuron": 2,
                "weights": [
                    0.6526305311438203,
                    1.0709890658384749,
                    -1.608342131235445,
                    -2.1687856800595458,
                    -2.9251184718460856
                ],
                "bias": 0.0
            },
            {
                "neuron": 3,
                "weights": [
                    -2.216157064129878,
                    -2.6121836805042906,
                    0.5886058343539299,
                    1.355585630098524,
                    1.527862950443184
                ],
                "bias": 0.0
            },
            {
                "neuron": 4,
                "weights": [
                    -1.6666789336110726,
                    -1.6985802992550538,
                    1.0063597993926972,
                    -0.13944492895605431,
                    1.3106987654821474
                ],
                "bias": 0.0
            },
            {
                "neuron": 5,
                "weights": [
                    1.5576730048242686,
                    1.7981196691007288,
                    -1.3569360871215945,
                    -0.24494822942061983,
                    -1.9377483282235852
                ],
                "bias": 0.0
            }
        ]
    },
    {
        "layer": 3,
        "neurons": [
            {
                "neuron": 1,
                "weights": [
                    -2.871696580931724,
                    2.3531690181411515,
                    3.2953455076566045,
                    1.8979949080339993,
                    -0.3170593077999432
                ],
                "bias": 0.0
            },
            {
                "neuron": 2,
                "weights": [
                    -1.6093083529726593,
                    1.0053946020955595,
                    1.7942231350623923,
                    1.8575436462210437,
                    -0.5746316712999539
                ],
                "bias": 0.0
            },
            {
                "neuron": 3,
                "weights": [
                    -3.518136863226799,
                    0.5009233289054271,
                    -0.9356985070274069,
                    -0.531082079922978,
                    2.7124862209782186
                ],
                "bias": 0.0
            },
            {
                "neuron": 4,
                "weights": [
                    0.3655473721139377,
                    1.5184843747010557,
                    -3.242784515282122,
                    -0.9563485243917551,
                    4.440442946937502
                ],
                "bias": 0.0
            },
            {
                "neuron": 5,
                "weights": [
                    7.529732323228884,
                    -2.547758483198735,
                    3.5430762106551583,
                    0.8749312736527294,
                    -3.1184523207614716
                ],
                "bias": 0.0
            }
        ]
    },
    {
        "layer": 4,
        "neurons": [
            {
                "neuron": 1,
                "weights": [
                    0.22423650356587538,
                    0.973380152587607,
                    -5.86172694797962,
                    -6.427306530772266,
                    3.339291278640292
                ],
                "bias": 0.0
            },
            {
                "neuron": 2,
                "weights": [
                    -7.0228465082797715,
                    -4.0087960493435375,
                    -2.6059443620791694,
                    3.6115912197515185,
                    5.02176815110029
                ],
                "bias": 0.0
            },
            {
                "neuron": 3,
                "weights": [
                    -0.7408938385490804,
                    0.46052353857365425,
                    4.61014001680987,
                    1.6116163744868934,
                    -8.565535271510376
                ],
                "bias": 0.0
            }
        ]
    }
]