[
    {
        "layer": 1,
        "neurons": [
            {
                "neuron": 1,
                "weights": [
                    1.5444138282254098,
                    3.315072999256667,
                    -7.713795552512374,
                    -6.8915649967962365
                ],
                "bias": 0.0
            },
            {
                "neuron": 2,
                "weights": [
                    -0.7316006039815195,
                    -0.4081057636956298,
                    0.7502157730165898,
                    2.135702044952099
                ],
                "bias": 0.0
            },
            {
                "neuron": 3,
                "weights": [
                    0.8032691426747183,
                    -1.8087612295229252,
                    -0.24228827902837313,
                    2.0910125379432176
                ],
                "bias": 0.0
            },
            {
                "neuron": 4,
                "weights": [
                    -0.2765782999001422,
                    -1.307084233774785,
                    2.723157618015697,
                    -5.580432632862507
                ],
                "bias": 0.0
            },
            {
                "neuron": 5,
                "weights": [
                    -0.03537862317920687,
                    1.4415086372419668,
                    -1.596650526477792,
                    -0.6521933608221512
                ],
                "bias": 0.0
            }
        ]
    },
    {
        "layer": 2,
        "neurons": [
            {
                "neuron": 1,
                "weights": [
                    3.49297606556281,
                    -3.8379067768691844,
                    -3.5939719984083207,
                    -0.43652926507509393,
                    2.9323487119745413
                ],
                "bias": 0.0
            },
            {
                "neuron": 2,
                "weights": [
                    -14.215264654489877,
                    -0.6837573498784221,
                    -2.7918880546569134,
                    8.344822279344971,
                    3.5186660491035697
                ],
                "bias": 0.0
            },
            {
                "neuron": 3,
                "weights": [
                    -3.4441297174474075,
                    2.157513281578198,
                    3.0668195611587623,
                    -11.109603026179089,
                    -8.391680805947773
                ],
                "bias": 0.0
            }
        ]
    }
]