[
    {
        "layer": 1,
        "neurons": [
            {
                "neuron": 1,
                "weights": [
                    0.6677198995095446,
                    -0.5732967795896899,
                    -0.864815082263544,
                    -1.6290514493746249
                ],
                "bias": 0.0
            },
            {
                "neuron": 2,
                "weights": [
                    -1.976502070003738,
                    -1.152052258253731,
                    -0.27171948861962264,
                    0.15781619129534682
                ],
                "bias": 0.0
            },
            {
                "neuron": 3,
                "weights": [
                    -0.7580379621789125,
                    0.12181399387886592,
                    0.9544108261258792,
                    1.3869399660274653
                ],
                "bias": 0.0
            },
            {
                "neuron": 4,
                "weights": [
                    0.40758102575825805,
                    1.2240902081368747,
                    -0.677023832234067,
                    -0.4402448750089543
                ],
                "bias": 0.0
            },
            {
                "neuron": 5,
                "weights": [
                    -0.5916376952359211,
                    -0.6358332977910397,
                    1.4392832498169346,
                    0.5157986982468075
                ],
                "bias": 0.0
            }
        ]
    },
    {
        "layer": 2,
        "neurons": [
            {
                "neuron": 1,
                "weights": [
                    -1.9629828249357784,
                    -1.1618261684901308,
                    1.1939257371264904,
                    -0.21259833897143054,
                    1.0634813118540878
                ],
                "bias": 0.0
            },
            {
                "neuron": 2,
                "weights": [
                    -1.1020902819590463,
                    -0.6502361410641235,
                    1.6714207210688539,
                    -0.7361416080292555,
                    1.3699342855144852
                ],
                "bias": 0.0
            },
            {
                "neuron": 3,
                "weights": [
                    2.1047296938192397,
                    0.9951752340114444,
                    -0.9350021076707274,
                    -0.36119405101931473,
                    -0.7964999841391782
                ],
                "bias": 0.0
            },
            {
                "neuron": 4,
                "weights": [
                    0.34918682815990115,
                    1.008932192321167,
                    -1.7883552752012024,
                    0.9897930205005174,
                    -1.948646732100089
                ],
                "bias": 0.0
            },
            {
                "neuron": 5,
                "weights": [
                    1.093785627969624,
                    0.8919900892705599,
                    -1.5102841934849214,
                    0.2885557191539256,
                    -1.3567004504092672
                ],
                "bias": 0.0
            }
        ]
    },
    {
        "layer": 3,
        "neurons": [
            {
                "neuron": 1,
                "weights": [
                    -1.3181346649604717,
                    -1.7976580922141723,
                    1.6446093560542985,
                    1.3978922030155219,
                    1.873206263329521
                ],
                "bias": 0.0
            },
            {
                "neuron": 2,
                "weights": [
                    -1.1781092920823555,
                    -1.4830940213998658,
                    0.30045615640431583,
                    1.8617002329048178,
                    1.1300590693985226
                ],
                "bias": 0.0
            },
            {
                "neuron": 3,
                "weights": [
                    2.0244645121858036,
                    2.5674057436368183,
                    0.4963889311701691,
                    -1.6359735030988438,
                    -1.0056057163906165
                ],
                "bias": 0.0
            },
            {
                "neuron": 4,
                "weights": [
                    -0.7614919922261044,
                    -0.6581049706424761,
                    1.1933531347329378,
                    1.0603910593433494,
                    0.9205880166262941
                ],
                "bias": 0.0
            },
            {
                "neuron": 5,
                "weights": [
                    2.0275745176579028,
                    1.4173528852464368,
                    -2.0648316299083698,
                    -1.269502412994386,
                    -1.885235998526979
                ],
                "bias": 0.0
            }
        ]
    },
    {
        "layer": 4,
        "neurons": [
            {
                "neuron": 1,
                "weights": [
                    -0.8899216278560261,
                    -0.6297219874516741,
                    2.377650653894099,
                    -0.7898233265819901,
                    1.945488082919668
                ],
                "bias": 0.0
            },
            {
                "neuron": 2,
                "weights": [
                    -1.2227158274923278,
                    -1.067132882795495,
                    0.7249528716808732,
                    0.14705641303397146,
                    1.7430397582813764
                ],
                "bias": 0.0
            },
            {
                "neuron": 3,
                "weights": [
                    -1.3121722295666716,
                    -1.1828305079469836,
                    3.4632366397898258,
                    -0.10961020454561962,
                    3.101114394718429
                ],
                "bias": 0.0
            },
            {
                "neuron": 4,
                "weights": [
                    1.042039241207851,
                    0.4677787811237041,
                    -1.9494255542097723,
                    0.5469828847643317,
                    -0.8368426425883775
                ],
                "bias": 0.0
            },
            {
                "neuron": 5,
                "weights": [
                    3.805408024466616,
                    2.788070927293486,
                    -0.5358835579981183,
                    1.9013331305781118,
                    -4.203086425735352
                ],
                "bias": 0.0
            }
        ]
    },
    {
        "layer": 5,
        "neurons": [
            {
                "neuron": 1,
                "weights": [
                    2.5325702050972616,
                    1.6441604539375736,
                    3.828103488051448,
                    -1.118304672350786,
                    -2.132973985067644
                ],
                "bias": 0.0
            },
            {
                "neuron": 2,
                "weights": [
                    0.1740805391466552,
                    -0.16819569837853068,
                    -2.204662292232712,
                    0.7041860484401621,
                    4.734645998159918
                ],
                "bias": 0.0
            },
            {
                "neuron": 3,
                "weights": [
                    -2.6651008613059055,
                    -1.4827253553035198,
                    -3.7358481004317645,
                    2.2452598812244817,
                    1.4618053353900813
                ],
                "bias": 0.0
            },
            {
                "neuron": 4,
                "weights": [
                    1.3402483344859797,
                    1.096300704837971,
                    0.8401110798330914,
                    -0.978891552265287,
                    -5.926005207916501
                ],
                "bias": 0.0
            },
            {
                "neuron": 5,
                "weights": [
                    0.05496537576145948,
                    -1.3306110632509232,
                    -2.496683040163417,
                    1.4724633451599873,
                    1.1661446141572966
                ],
                "bias": 0.0
            }
        ]
    },
    {
        "layer": 6,
        "neurons": [
            {
                "neuron": 1,
                "weights": [
                    -5.782157435177595,
                    1.591040579400752,
                    2.5267216373245662,
                    -3.4003431283139562,
                    0.9525295399882585
                ],
                "bias": 0.0
            },
            {
                "neuron": 2,
                "weights": [
                    2.6183841710922517,
                    2.1210541945081456,
                    -5.216787412158987,
                    -5.690276297476682,
                    -1.7231112935241089
                ],
                "bias": 0.0
            },
            {
                "neuron": 3,
                "weights": [
                    0.8786916709805084,
                    -5.150040984144614,
                    -1.656964647024446,
                    2.7170996592472667,
                    -4.22632087291217
                ],
                "bias": 0.0
            }
        ]
    }
]