[
    {
        "layer": 1,
        "neurons": [
            {
                "neuron": 1,
                "weights": [
                    -0.8735190573305587,
                    1.0956021651738777,
                    -0.260136120967457,
                    -2.4632328528045186
                ],
                "bias": 0.0
            },
            {
                "neuron": 2,
                "weights": [
                    -3.054567385395715,
                    7.504625741789922,
                    -7.189716657783655,
                    -7.902506849921002
                ],
                "bias": 0.0
            },
            {
                "neuron": 3,
                "weights": [
                    3.998314111887652,
                    -2.0125060380203736,
                    -6.653074608021238,
                    -2.1483035267886783
                ],
                "bias": 0.0
            },
            {
                "neuron": 4,
                "weights": [
                    -0.7370501574444114,
                    0.15918396846313337,
                    1.7295777044580678,
                    1.0421609199805681
                ],
                "bias": 0.0
            },
            {
                "neuron": 5,
                "weights": [
                    -0.5278157237246762,
                    0.3258220285054379,
                    0.9660436265819791,
                    1.4554899530634888
                ],
                "bias": 0.0
            }
        ]
    },
    {
        "layer": 2,
        "neurons": [
            {
                "neuron": 1,
                "weights": [
                    1.4841437873539185,
                    5.440916283271702,
                    -1.3749113758805556,
                    -5.553296390157995,
                    -2.8880337831697354
                ],
                "bias": 0.0
            },
            {
                "neuron": 2,
                "weights": [
                    10.661170923589351,
                    -22.270369907184687,
                    8.385512760040017,
                    -0.5607071581882036,
                    -2.841773347817283
                ],
                "bias": 0.0
            },
            {
                "neuron": 3,
                "weights": [
                    -14.403893633761724,
                    -2.673106361175377,
                    -11.31475852425999,
                    3.54591562641804,
                    0.46064951402085147
                ],
                "bias": 0.0
            }
        ]
    }
]