{
  "learning_rate": 0.1,
  "bias": 0.0,
  "use_momentum": false,
  "momentum": 0.0,
  "layer_sizes": [
    4,
    6,
    3
  ],
  "layers": [
    [
      {
        "weights": [
          1.9322335674227713,
          0.41667712946687063,
          0.9220616982955722,
          0.8174375060155062
        ],
        "bias": 0.0
      },
      {
        "weights": [
          -0.23828377309921075,
          5.9823764540650695,
          -5.746367296082525,
          -3.258373117693301
        ],
        "bias": 0.0
      },
      {
        "weights": [
          0.3376500215338593,
          -0.04482323609190686,
          -1.3527254933222257,
          -1.059359674942965
        ],
        "bias": 0.0
      },
      {
        "weights": [
          -0.535504473102332,
          0.3964338670092507,
          -0.7001203254857481,
          -0.9268468932632401
        ],
        "bias": 0.0
      },
      {
        "weights": [
          0.5403456666988338,
          -5.226489819267128,
          4.569433100055782,
          1.7838314906544537
        ],
        "bias": 0.0
      },
      {
        "weights": [
          -2.2860177754142303,
          1.0811285172910725,
          3.3910289563485603,
          1.3693481627489066
        ],
        "bias": 0.0
      }
    ],
    [
      {
        "weights": [
          -1.7841635636200477,
          3.8358717235659343,
          -0.969245523325773,
          1.7857967559228598,
          -2.815498703508617,
          -3.810612458984679
        ],
        "bias": 0.0
      },
      {
        "weights": [
          -4.48064237525402,
          -11.0754699203356,
          4.439767160134665,
          4.446300913705631,
          5.838785591474084,
          -5.29306918032616
        ],
        "bias": 0.0
      },
      {
        "weights": [
          0.8133227735473596,
          -4.033191211531818,
          -7.832720467330054,
          -8.719022373545524,
          -1.0159609116208197,
          5.055272806525082
        ],
        "bias": 0.0
      }
    ]
  ]
}