{
  "learning_rate": 0.1,
  "bias": 0.0,
  "use_momentum": false,
  "momentum": 0.0,
  "layer_sizes": [
    4,
    5,
    3
  ],
  "layers": [
    [
      {
        "weights": [
          2.364791887371425,
          -0.923376569703078,
          -3.0863686391572926,
          -1.755593776998521
        ],
        "bias": 0.0
      },
      {
        "weights": [
          -1.0472797123908202,
          3.150921784323762,
          -3.4279657897241096,
          -5.034166905913498
        ],
        "bias": 0.0
      },
      {
        "weights": [
          0.0672812846395652,
          4.398908493960858,
          -7.027591138425548,
          -6.33163339057209
        ],
        "bias": 0.0
      },
      {
        "weights": [
          -1.2488179214057287,
          1.3125335193239671,
          0.40538402567138493,
          -1.6349602708316384
        ],
        "bias": 0.0
      },
      {
        "weights": [
          1.3318684878767306,
          -1.4701212466195392,
          -0.4418405696284322,
          1.6283286222082767
        ],
        "bias": 0.0
      }
    ],
    [
      {
        "weights": [
          1.1579598361303207,
          1.2995536237397207,
          3.357519605293722,
          -1.2410186928167968,
          -6.277355165307864
        ],
        "bias": 0.0
      },
      {
        "weights": [
          7.889486913528466,
          -5.619454221028725,
          -12.12563279110032,
          7.450332145850732,
          -3.877122029042621
        ],
        "bias": 0.0
      },
      {
        "weights": [
          -10.261728941136612,
          -5.778984495502542,
          -2.0015817564815994,
          -7.433668814447019,
          4.691688185704163
        ],
        "bias": 0.0
      }
    ]
  ]
}