{
  "learning_rate": 0.1,
  "bias": 0.0,
  "layer_sizes": [
    4,
    5,
    5,
    5,
    5,
    3
  ],
  "layers": [
    [
      {
        "weights": [
          -0.8666428795849995,
          1.7930444267476313,
          -0.8034338582514953,
          -0.7278631927604667
        ],
        "bias": 0.0
      },
      {
        "weights": [
          -0.41812907518947623,
          0.3208650272154787,
          0.15947345051041767,
          -1.5987319117214038
        ],
        "bias": 0.0
      },
      {
        "weights": [
          -0.6440675968413853,
          1.1636222896192294,
          -1.0717765759036129,
          -0.1992641279842587
        ],
        "bias": 0.0
      },
      {
        "weights": [
          -1.6056411060171907,
          0.6843337347913232,
          2.17919014104413,
          1.2254240060617594
        ],
        "bias": 0.0
      },
      {
        "weights": [
          0.15961846277438735,
          1.1559976635682043,
          -0.7953645221160013,
          0.4337323514929304
        ],
        "bias": 0.0
      }
    ],
    [
      {
        "weights": [
          -0.9421199206895146,
          -1.237198202321433,
          -0.17614504779812498,
          3.2614972894347534,
          -0.954400737694407
        ],
        "bias": 0.0
      },
      {
        "weights": [
          3.3339957395398723,
          2.6190113748823585,
          2.7590647305626925,
          -2.7429162759851806,
          0.2641137375294459
        ],
        "bias": 0.0
      },
      {
        "weights": [
          -1.4525685657175915,
          0.7738267991481242,
          -0.4495341980431638,
          -0.7409300743473116,
          0.797599464722976
        ],
        "bias": 0.0
      },
      {
        "weights": [
          1.9504878884931558,
          -0.5999753512844261,
          0.6181234416013138,
          -1.1600997986678432,
          0.8901110883626407
        ],
        "bias": 0.0
      },
      {
        "weights": [
          -1.0892002922836517,
          -1.1964822452746282,
          -1.663912136049446,
          1.5151222965355569,
          1.0735173993072915
        ],
        "bias": 0.0
      }
    ],
    [
      {
        "weights": [
          -0.8238755141215643,
          3.5633250539053347,
          -0.5230221624015919,
          1.3467137099390594,
          -2.4433581730550515
        ],
        "bias": 0.0
      },
      {
        "weights": [
          4.038414743104646,
          -1.9583518482951152,
          0.3090636467967614,
          -0.5507707069816875,
          2.600916318044925
        ],
        "bias": 0.0
      },
      {
        "weights": [
          2.0847223222202533,
          0.42125162187937565,
          0.6727580516979903,
          -1.7283298174224564,
          1.5717063287061275
        ],
        "bias": 0.0
      },
      {
        "weights": [
          2.771592499123905,
          -4.589056131333312,
          -1.0566498019024015,
          -0.6309278334420094,
          1.306634349521502
        ],
        "bias": 0.0
      },
      {
        "weights": [
          -1.8706661782941902,
          3.207526575885691,
          -0.6614087933681195,
          1.3345706523777099,
          -1.1857318697273334
        ],
        "bias": 0.0
      }
    ],
    [
      {
        "weights": [
          3.5441666705916033,
          -2.328931859608675,
          1.600623126951526,
          -3.365967475100331,
          2.635650758170848
        ],
        "bias": 0.0
      },
      {
        "weights": [
          0.3193106902440913,
          -3.060001662856841,
          -0.7945419546093702,
          -0.23170676067600474,
          1.753311942034883
        ],
        "bias": 0.0
      },
      {
        "weights": [
          -3.387246724084056,
          3.168637385952913,
          -2.7879821236611133,
          4.344205278813259,
          -3.3977389121070867
        ],
        "bias": 0.0
      },
      {
        "weights": [
          -2.00584328170247,
          3.2564449034399083,
          1.7820791614440568,
          2.0643591562127437,
          -0.4765368391306432
        ],
        "bias": 0.0
      },
      {
        "weights": [
          1.1131380803505606,
          -5.4449120251899625,
          -2.527771933661774,
          -2.765061227490412,
          3.0964266210884874
        ],
        "bias": 0.0
      }
    ],
    [
      {
        "weights": [
          0.3536382650465644,
          0.8598404227293028,
          -3.5432567940952207,
          -5.310889197423641,
          4.65221614330188
        ],
        "bias": 0.0
      },
      {
        "weights": [
          3.7529447559705265,
          -2.6282329668237345,
          -6.155304986577405,
          1.2857657353410266,
          -6.472227748159703
        ],
        "bias": 0.0
      },
      {
        "weights": [
          -4.842249604908956,
          -2.921360866449594,
          5.325931650606635,
          0.031756058408730845,
          -3.6708517285958258
        ],
        "bias": 0.0
      }
    ]
  ]
}