{
  "bias": 0.0,
  "layer_sizes": [
    4,
    5,
    3
  ],
  "layers": [
    [
      {
        "weights": [
          0.6966348314004285,
          0.9046850475904922,
          -0.2249493675061187,
          -0.23362223206981536
        ],
        "bias": 0.0
      },
      {
        "weights": [
          -0.762690547044685,
          -0.5204039817546979,
          -0.016624591222438978,
          0.7076681592144489
        ],
        "bias": 0.0
      },
      {
        "weights": [
          0.6538826885761215,
          -0.7174117872541548,
          0.7877492224702463,
          0.9512773037844904
        ],
        "bias": 0.0
      },
      {
        "weights": [
          -0.009478509187665018,
          -0.48704504506130886,
          -0.5678461631356662,
          -0.1905455175182047
        ],
        "bias": 0.0
      },
      {
        "weights": [
          -0.5170898873866883,
          0.22365904042615803,
          -0.6078671395077349,
          0.8750742035585004
        ],
        "bias": 0.0
      }
    ],
    [
      {
        "weights": [
          0.529558314469462,
          -0.5594461429161854,
          0.07933068475078398,
          -0.9679642399663231,
          0.8678942243175625
        ],
        "bias": 0.0
      },
      {
        "weights": [
          0.46689681453131504,
          -0.7306139647375174,
          -0.5942223798285,
          -0.26776289553274446,
          0.6335139074344147
        ],
        "bias": 0.0
      },
      {
        "weights": [
          -0.14935559977231838,
          -0.08184751101480581,
          0.9017017596034935,
          -0.9060487253120024,
          -0.5149687883482434
        ],
        "bias": 0.0
      }
    ]
  ]
}