{
  "bias": 0.0,
  "layer_sizes": [
    4,
    5,
    5,
    5,
    5,
    5,
    3
  ],
  "layers": [
    [
      {
        "weights": [
          -0.034324491002715174,
          0.4482601382386546,
          0.3742314701503746,
          -0.9358454667836347
        ],
        "bias": 0.0
      },
      {
        "weights": [
          -0.9164535592206318,
          -0.9352657045992814,
          0.10644549790985325,
          0.2533890344747203
        ],
        "bias": 0.0
      },
      {
        "weights": [
          0.8654938723254597,
          0.37205899162607614,
          0.22661823812469284,
          0.9256179240196565
        ],
        "bias": 0.0
      },
      {
        "weights": [
          0.49590825796458615,
          0.8918687587165306,
          -0.025874328690514314,
          0.006464581300977157
        ],
        "bias": 0.0
      },
      {
        "weights": [
          0.715133823422879,
          -0.12944003255551428,
          0.8057178474019835,
          0.0783943170696284
        ],
        "bias": 0.0
      }
    ],
    [
      {
        "weights": [
          -0.9756092099816009,
          -0.6733676640300801,
          0.46537604037666536,
          0.012223163637632206,
          0.3649103963964355
        ],
        "bias": 0.0
      },
      {
        "weights": [
          -0.08277190009191249,
          -0.30185876484042495,
          0.20231247741618352,
          -0.5685650805154336,
          -0.20966576219258926
        ],
        "bias": 0.0
      },
      {
        "weights": [
          0.6215360789760158,
          -0.21002525539722794,
          -0.5196515871957439,
          -0.7427995779288934,
          -0.5366418581215837
        ],
        "bias": 0.0
      },
      {
        "weights": [
          -0.5482557165733313,
          0.7532509007702999,
          -0.9578864557225617,
          0.487886531797485,
          -0.9183437145454183
        ],
        "bias": 0.0
      },
      {
        "weights": [
          -0.587817290991614,
          -0.045595957465929926,
          -0.7198544391599941,
          -0.5635596230935682,
          -0.44129763352197426
        ],
        "bias": 0.0
      }
    ],
    [
      {
        "weights": [
          0.1683743768898831,
          -0.771127109131932,
          0.4948851181289833,
          0.23761776657738598,
          0.9229499883209078
        ],
        "bias": 0.0
      },
      {
        "weights": [
          0.27524664577211166,
          -0.4462831227717554,
          -0.7495252877145846,
          0.6455515976235462,
          0.2168117594619896
        ],
        "bias": 0.0
      },
      {
        "weights": [
          0.7345496644326241,
          0.9747345651684003,
          0.7926985322050504,
          -0.49757766260470926,
          -0.37708650681818146
        ],
        "bias": 0.0
      },
      {
        "weights": [
          0.5673996554183194,
          0.49505948088024954,
          0.7375986602682802,
          0.5366045876665837,
          0.4949560217764213
        ],
        "bias": 0.0
      },
      {
        "weights": [
          0.47296699702647516,
          0.511181964701362,
          -0.743139587163864,
          0.13685155627063073,
          -0.8890294892703157
        ],
        "bias": 0.0
      }
    ],
    [
      {
        "weights": [
          0.16170324960042937,
          0.2971265909337226,
          0.70008633570889,
          -0.4834262649655494,
          0.3494699328251927
        ],
        "bias": 0.0
      },
      {
        "weights": [
          -0.7051757895342181,
          -0.6105849629069506,
          -0.5571519153320232,
          0.09079378395246862,
          0.5505917062540822
        ],
        "bias": 0.0
      },
      {
        "weights": [
          -0.1819215509293015,
          -0.40925454140534323,
          0.7876388212023542,
          -0.095997470766775,
          0.41050326984669394
        ],
        "bias": 0.0
      },
      {
        "weights": [
          0.27494154652676195,
          -0.3103553628202649,
          -0.9014419115749583,
          0.2345512227942721,
          0.05388790288877887
        ],
        "bias": 0.0
      },
      {
        "weights": [
          0.45347354824106234,
          0.5890291848896227,
          0.7917940865774991,
          0.1096941928806554,
          -0.7393932199834459
        ],
        "bias": 0.0
      }
    ],
    [
      {
        "weights": [
          0.08280824831425537,
          -0.16555316124268993,
          -0.07295436601040262,
          -0.03437089501104329,
          -0.33093969876206697
        ],
        "bias": 0.0
      },
      {
        "weights": [
          0.2907760927583576,
          0.5875082231086612,
          -0.9523865280701271,
          -0.8094877661522772,
          0.06935138705893862
        ],
        "bias": 0.0
      },
      {
        "weights": [
          -0.39944910958070046,
          -0.06362165404267595,
          -0.30765139925999363,
          0.9530233082387112,
          0.07635523698555469
        ],
        "bias": 0.0
      },
      {
        "weights": [
          0.5622727731494825,
          -0.29380584120989206,
          -0.9014772316770545,
          0.4439899796842439,
          -0.827855162164558
        ],
        "bias": 0.0
      },
      {
        "weights": [
          0.41881161951224377,
          -0.8016455276868206,
          -0.9700407564115974,
          0.5572229739002235,
          -0.9399834519313812
        ],
        "bias": 0.0
      }
    ],
    [
      {
        "weights": [
          0.04461096421422028,
          0.8678359053504352,
          0.6233844383159028,
          -0.2188939659932838,
          -0.07284413901931219
        ],
        "bias": 0.0
      },
      {
        "weights": [
          -0.14517429573902474,
          -0.10622975826361603,
          -0.5940915580056125,
          -0.4852076937182337,
          -0.636300615740389
        ],
        "bias": 0.0
      },
      {
        "weights": [
          0.7154465069106528,
          -0.2855838440999865,
          0.9556925919776067,
          0.8103351650728772,
          -0.8190944778541251
        ],
        "bias": 0.0
      }
    ]
  ]
}